From input layer through hidden layer:
[ 0.07992381  0.02581463  0.10499233  0.34156018 -0.24625291 -0.06309969
 -0.27194303 -0.12014551  0.33062547 -0.08273165 -0.0713606   0.07557499
 -0.1172244   0.20527287 -0.16645996 -0.15179114  0.03402391 -0.1308806
 -0.28260303  0.32187143] [-0.23557968  0.03305323 -0.24518052 -0.16411588 -0.05964823  0.2754339
 -0.10898667 -0.03030829 -0.12771569  0.08796472 -0.19403139 -0.24344946
 -0.23308167  0.37080708  0.09511223 -0.06052196  0.04544181  0.16528581
 -0.02414233 -0.12281752] [ 0.2734767  -0.14102387  0.13961576 -0.01824243 -0.2186102   0.11340807
 -0.14071946 -0.20037864 -0.07084649 -0.09087952  0.11027782 -0.35814062
 -0.22217926 -0.18899365  0.22594054  0.08236601 -0.10981933  0.2122805
  0.12803428  0.11447576] [-0.13743754  0.40076622  0.39675397  0.28637344  0.06655223  0.4362049
  0.3012065   0.11741969 -0.12046988 -0.03299772  0.15581627 -0.26835787
 -0.00471917  0.21110183  0.12899472 -0.264994   -0.18084085  0.22014269
 -0.07193005 -0.07084078] [-0.1573741  -0.13547465 -0.23217167 -0.07981328  0.15274444 -0.0102218
 -0.14945942 -0.26972672  0.09618069 -0.09978398  0.02068522  0.01512345
  0.13937877  0.01382456  0.25407115  0.0853963   0.09553537  0.31403357
  0.17947134 -0.07668295] [-0.3277104   0.04362686 -0.09256395  0.417002    0.35502812 -0.07971699
 -0.2690797   0.13749978  0.0787463  -0.34348157 -0.05558621 -0.27106553
  0.3789814   0.10134546 -0.38781816  0.1177945   0.3754047   0.2591513
  0.04892221 -0.01154597] [ 0.01885837 -0.05841607 -0.15789169  0.18095492  0.20389666 -0.28726164
 -0.2890516   0.15794146 -0.02486673 -0.10083155 -0.41184062  0.13320372
 -0.09499044  0.13764068 -0.08171761 -0.25806215 -0.35070035  0.05406102
  0.15974165  0.0217498 ] [-0.04095913 -0.0684679   0.0546359  -0.03796605  0.05295535 -0.03420008
 -0.20742433  0.26577067  0.05882806 -0.04862467  0.04847879 -0.35037288
 -0.1572542  -0.05923833 -0.10507812 -0.18884869  0.25802478  0.03699882
  0.10606632  0.0221555 ] [ 0.28552026  0.07855424 -0.19782938  0.25452924 -0.01872652  0.04247278
 -0.1169923   0.09857123  0.15016274 -0.30648726 -0.28152892 -0.14661391
 -0.1631036   0.09301906  0.04372496 -0.31114987  0.05552952 -0.07969759
 -0.13283245  0.04697348] [ 0.11644117 -0.24596556  0.27476713  0.24731633  0.20667364 -0.18634756
 -0.2834231  -0.16404481 -0.10057648  0.08592545  0.17621155 -0.22330706
  0.12217016  0.0673963  -0.00639288 -0.21024327 -0.08654124 -0.06613363
  0.14997154 -0.21496028] [ 0.14162989  0.21497789  0.21856877 -0.13138546 -0.01857945  0.31915078
 -0.00497238 -0.17250566  0.16820702  0.19721265  0.3784811   0.34311256
  0.16132434 -0.16103826 -0.10434689 -0.12959355 -0.0743463  -0.0171523
  0.00750224 -0.25946847] [ 0.03667255 -0.0813854  -0.0932839   0.11140578 -0.06904604 -0.23799227
  0.03713239 -0.01581963 -0.06155311 -0.03277779  0.14263746 -0.07333483
  0.17496158 -0.00326145  0.023618    0.20911342 -0.10919255 -0.07649104
 -0.3162976  -0.0259751 ] [-0.23317882  0.12623563 -0.06290686 -0.40082243  0.23518048 -0.1088544
 -0.02831959 -0.2247261  -0.06784531 -0.00515824  0.16060431 -0.05444546
  0.09905884 -0.46258885 -0.23646763  0.13490488  0.09047995  0.3265451
 -0.2930532   0.08733192] [ 0.00282517  0.2866028  -0.1034769   0.111931    0.1186416  -0.20451678
  0.10312215  0.39875263  0.19143042 -0.43216556 -0.3635218  -0.13384406
  0.18815452  0.32595846  0.03219329 -0.23481117 -0.18405703  0.00229088
  0.0871536   0.03046353] [ 0.10938656 -0.19476391  0.07930844  0.38440478  0.11180142  0.17413421
 -0.05670731  0.13606274  0.38666746  0.03176129  0.07100159 -0.10222156
  0.29572272 -0.17924613  0.10537145  0.17648493  0.09288684  0.07173748
 -0.25760788 -0.04108831] [ 0.23701197 -0.0623452  -0.21364051 -0.14941806 -0.27212897  0.02892735
 -0.2521258  -0.16754098  0.25310507 -0.09892286  0.17049113 -0.03949984
 -0.13616443 -0.16959193 -0.2630555  -0.06502362  0.26648274 -0.04512716
 -0.15710285  0.21308385] [ 0.00638049  0.07016693  0.14088033  0.10981712 -0.01174793 -0.17655122
  0.2196769  -0.23936938 -0.18116073 -0.03910129  0.11507685 -0.14806844
  0.05698752 -0.05231001  0.06100886 -0.2322981  -0.19166587 -0.20696113
  0.24069957  0.19294171] [ 0.05493143  0.02237404 -0.14541034 -0.26091897  0.13664429  0.02429206
  0.09294399 -0.15281296  0.09332924  0.21809654 -0.08158781 -0.0210224
  0.09174708 -0.19173527 -0.15200235 -0.02948326 -0.13062951 -0.18502682
 -0.06306355 -0.14182508] [ 0.0996582   0.10079991  0.16827224  0.01939975  0.17882334 -0.14075159
 -0.00354311  0.05701225 -0.15597437  0.12852758  0.06808073 -0.1161811
 -0.20093897 -0.15069136  0.24305877  0.2177541   0.08141705  0.15532486
  0.0044905   0.0511337 ] [-0.04320267  0.19898683 -0.01901568  0.15770371  0.13537104  0.0959812
  0.13171114 -0.26185358 -0.18819878  0.02420544  0.10172965  0.17006345
  0.23994572 -0.06037606  0.17937587  0.01237068  0.35738584 -0.03760136
  0.23066449 -0.14036617] [ 0.21330957  0.32486627  0.09296668 -0.10477298  0.3121911   0.15950081
  0.12515445  0.08436719 -0.00660318 -0.17061907  0.09577229 -0.39000073
  0.2784303   0.1954929   0.17338848  0.05441206  0.29704446  0.10316838
 -0.14414492 -0.35440177] [ 0.05736754 -0.02984899  0.04090048  0.02087463  0.07165678  0.09473351
 -0.01560901  0.3155794   0.43752298  0.02737558  0.00963997 -0.05485825
  0.03529718 -0.04016406  0.02341533 -0.1875379  -0.3053882   0.12296384
 -0.3299929  -0.17479837] [-0.07093297  0.13420357 -0.26103052  0.2709796   0.08741547  0.18308057
 -0.18178327  0.09152164 -0.02050707 -0.05807526 -0.01808365 -0.13586633
 -0.09679015 -0.17682944  0.24054646 -0.04885263 -0.14041337 -0.05581403
 -0.3018215   0.09619703] [ 0.25293976 -0.24924582  0.20978811 -0.2026465   0.08487745  0.15838216
  0.01058695  0.32382935 -0.34143856 -0.1969747   0.03990776  0.06281091
  0.00513616 -0.09146208  0.1544863  -0.11129655  0.09495995 -0.20265242
 -0.06000328 -0.03936754] [-0.00777353 -0.03904525 -0.18301319  0.3395716  -0.15804188  0.25414044
 -0.10416261  0.09055749 -0.17673424 -0.14621124  0.04835773 -0.12880753
 -0.01199172  0.32877508 -0.19919688  0.19289179  0.08136965 -0.09642547
 -0.15315646  0.19019504] [-0.25491622  0.1910247   0.4267559  -0.17425029 -0.2151709   0.19594677
 -0.09607151 -0.2394594  -0.19590756 -0.20169224  0.25392362 -0.1605652
 -0.2193075   0.22541864  0.06662679  0.02660586 -0.13175793  0.07376613
  0.17565906 -0.22412467] [-0.2128826  -0.03577882  0.18672307  0.01879265  0.0590723  -0.02348022
 -0.32570302 -0.2558481  -0.4283292  -0.25914907 -0.15092424 -0.03190452
  0.32760978  0.22573122 -0.03483756  0.03476672  0.38058612 -0.02111864
  0.19069755 -0.23269165] [-0.12781006  0.22207716 -0.07715194 -0.14059386  0.22549292  0.11534987
 -0.05080463 -0.28706297 -0.0949805  -0.2275874   0.37564197  0.04756028
 -0.23756215 -0.21547803 -0.01883601  0.3008841   0.36729816 -0.10514563
  0.11702938 -0.11756656] [ 0.19880268  0.22282396 -0.21472152  0.00620435  0.0718907  -0.14415842
  0.18097226  0.1908118  -0.05191863 -0.19168772  0.08526999 -0.23684429
  0.23852287 -0.0875041   0.20900202 -0.2483509  -0.15250337 -0.15180528
 -0.36607102 -0.24157494] [ 0.2065018  -0.03542777  0.04607825  0.01067752 -0.00272702  0.17077158
  0.26039353  0.07040127  0.22818603  0.01667687  0.24076281 -0.1577977
  0.06070488  0.30558917 -0.05145312  0.29850414  0.0511558   0.0096557
  0.09542798  0.02958515] [ 0.07003032 -0.10441292  0.08396934  0.14519836 -0.12485655  0.09875464
  0.2985644   0.37663904  0.06547105 -0.42554796  0.00311501 -0.02244382
 -0.2375761  -0.02378625 -0.11483029  0.16586109 -0.08799826  0.09727422
  0.11601577 -0.13226499] [-0.36161792 -0.33265892 -0.2248882   0.38317138  0.03627019  0.17484625
  0.18069227 -0.12536378  0.02679093 -0.16206703 -0.10097961 -0.31900787
  0.09450279  0.27875006  0.21380505  0.13832542  0.04125063  0.12731491
 -0.03815953  0.15977006] [ 0.1308507   0.13943198  0.09955057  0.30559215 -0.16271427  0.02679821
  0.20355463 -0.02977189 -0.01701609 -0.03159324 -0.14987546 -0.20081712
 -0.16284707  0.353509    0.06456713  0.06903155  0.12856853 -0.0557772
  0.40732315  0.14261556] [ 0.09721129  0.12998365  0.11305613 -0.0963482   0.02862342  0.03910157
 -0.21104917 -0.07631424  0.03338432  0.08022726 -0.02493432 -0.1286816
 -0.05422808 -0.14579333  0.14020495  0.03359709  0.44999182 -0.01038716
  0.2360287  -0.09207819] [-0.19111423 -0.04944962 -0.01470149 -0.02790335  0.03257712  0.24919167
 -0.27427036  0.01109019  0.02720585 -0.18727316  0.38304162 -0.32525736
 -0.13393249  0.20414238  0.15465063  0.16610336 -0.089704    0.10551704
 -0.28068516  0.00416625] [ 0.08848197  0.10601048  0.19530916  0.10412356 -0.04466701 -0.12048279
  0.1052494  -0.00260791  0.20710059  0.00844327  0.05903654 -0.03761851
  0.1528266   0.11691519  0.07740664 -0.07497839 -0.08052742 -0.03735126
  0.00719086 -0.20156491] [-0.05052757 -0.19010265  0.2154628   0.1010903   0.15288192  0.33691853
 -0.00953927  0.00652839  0.10165934 -0.08533887  0.14087898 -0.14445642
  0.01240791 -0.11707941 -0.25830343  0.05035379 -0.28595442  0.04554833
  0.29920605 -0.24765743] [-0.17428581 -0.00359936  0.03356289 -0.05457469 -0.2288945  -0.18565647
  0.2713909  -0.16536021 -0.01632893 -0.158833    0.21914616 -0.10981839
 -0.07968131 -0.0506785  -0.14833403 -0.19988367 -0.13247739  0.08214495
 -0.16655639 -0.06750911] [ 0.02264971  0.11855274 -0.17154296  0.16019218 -0.15379463 -0.26474762
  0.20118251  0.14229085 -0.14319268 -0.05439449  0.19832312  0.21935816
  0.13527752 -0.12315141 -0.25686488 -0.2320827  -0.29955727 -0.31249905
 -0.18044843  0.22024573] [-0.14640436  0.03314982  0.33332178  0.04258747 -0.29489908  0.0525303
 -0.17019014 -0.20496865  0.17116189 -0.15621193  0.14875801 -0.03797618
  0.10859141  0.19840725  0.05329619 -0.17513634  0.08297434 -0.02712814
 -0.0355606  -0.06285238] [-0.13539915  0.00220815  0.04053937 -0.18401581  0.20275971  0.13102315
  0.30007803 -0.32968533 -0.48940778 -0.00240329 -0.04256446  0.19919847
  0.13913937  0.18815915 -0.2648159   0.04071593  0.12400965 -0.30248445
  0.28102842 -0.09394014] [-0.10266239  0.25078228  0.0632983  -0.1927092  -0.01207156  0.35867727
 -0.16476513 -0.23379302 -0.05135999 -0.14993808  0.3645271  -0.21647294
 -0.25321284 -0.05351245  0.36972234  0.37903118  0.11377267 -0.12653668
 -0.29648927 -0.20926856] [-0.10867777 -0.1519365  -0.01670538  0.01379686  0.06926628  0.24880485
 -0.10129853 -0.13251562  0.1997923   0.1545086  -0.07594993 -0.1605659
 -0.21398146 -0.18059617  0.02385963  0.07013227 -0.40030992 -0.10832441
 -0.03133534  0.05406234] [-0.04827889 -0.1784232  -0.10604426 -0.25168365 -0.27430135  0.10894796
 -0.10967952  0.05469646 -0.1444953  -0.12404735  0.17053738 -0.1854266
  0.01048468 -0.04123936 -0.12400707  0.31345743  0.03209118 -0.08523764
  0.01380495  0.24746664] [-0.03499809 -0.10666152  0.3478825  -0.08978367 -0.13799682 -0.04457425
  0.11330251  0.11001138 -0.12784894 -0.28847656  0.06107994 -0.10534428
  0.01517038  0.07873571  0.0514676  -0.11138763  0.05561562 -0.03730815
  0.10303249  0.01392412] [ 0.01422833 -0.27962103  0.09574618 -0.00056526 -0.3000132   0.05905741
 -0.19824636 -0.04921407  0.09590867  0.11874984 -0.06492601 -0.08469104
 -0.15926655  0.13128039  0.16426593 -0.15210459  0.0132355   0.20996967
  0.08734227  0.2435802 ] [ 0.05515791  0.02406111  0.1549088   0.09078556 -0.10236523 -0.01478101
  0.09536335  0.29636806 -0.03750084 -0.0728086  -0.12044042  0.170385
 -0.17988321 -0.15099627 -0.09671033 -0.12250613  0.09752746  0.00188784
 -0.17461672  0.2508051 ] [-0.29201394  0.19151932  0.12128643 -0.2787438  -0.1136405   0.16447483
 -0.10416881 -0.33953574 -0.35986272 -0.04836507 -0.10676228  0.15834266
 -0.06048451 -0.03536623 -0.1309756   0.19680543 -0.02512785 -0.11863955
  0.1278941  -0.05943089] [-0.03993855  0.5196359   0.05218839  0.13590908 -0.15577129  0.11722623
 -0.18210071 -0.08933681 -0.04204291 -0.11481443  0.05589708 -0.18986069
  0.17062579  0.1409048   0.23809168 -0.03643861  0.13650915  0.21000697
 -0.16160272 -0.47248036] [-0.20634872  0.08989384  0.13513367 -0.21062212 -0.10148925 -0.08093094
  0.17837343 -0.05643241 -0.06514379 -0.33479205  0.14954919  0.09115902
 -0.23868178  0.19589871 -0.16611332 -0.00423872  0.19285458 -0.10581903
  0.1683311   0.22414204] [ 0.2693204  -0.07556856  0.0850967   0.06543355  0.22142664 -0.3617552
 -0.16120216  0.15120262 -0.20001346  0.18547665  0.1759224   0.09929428
 -0.22103706  0.03454121  0.1700675  -0.25393298  0.12170061  0.01723271
 -0.14111532 -0.40778884] [ 0.1391199  -0.16284025  0.06840298  0.03497644  0.21687488 -0.03376991
  0.21626668  0.24158052  0.06358002 -0.20495456 -0.19489807  0.01825486
  0.04767124  0.07792322  0.02638857 -0.07664894 -0.02771041 -0.10074991
 -0.1563645   0.1474554 ] [-0.05775137 -0.28907594 -0.12248255 -0.16313465 -0.18864699  0.06623314
  0.22964959 -0.07035729  0.11631525 -0.15371647  0.06858217 -0.23997158
  0.28165737  0.20628579 -0.1041598   0.28440475  0.13129741 -0.10690702
  0.05300854  0.12904918] [-0.30560142 -0.29735875  0.17315175  0.12908413 -0.10939581 -0.26590934
  0.22436447 -0.1411213   0.00346606 -0.07160261 -0.36500743  0.2839398
 -0.18390737  0.04566258 -0.20529042 -0.10104842 -0.02237056  0.12061274
 -0.13769834 -0.0012225 ] [ 0.07928821 -0.14397876  0.24048787 -0.3280767  -0.09218982 -0.2308094
 -0.2899531  -0.35373574  0.11074099  0.05425538  0.30143368  0.09744478
  0.1391093  -0.13766153  0.16642518  0.20999399 -0.20289542 -0.11214422
 -0.3494421  -0.20355108] [ 0.17780758 -0.12706445  0.06265996  0.40585133  0.18967788  0.00148789
  0.24219128  0.2249175  -0.2548221  -0.2844885   0.05277641 -0.15859583
 -0.1441408   0.01962662  0.30842173  0.15203618  0.2049417  -0.08378478
  0.01441725 -0.09618662] [ 0.1867965  -0.36541668  0.13583021  0.00819887 -0.27747577  0.41883144
  0.06923994  0.09020729  0.07936833  0.05218941  0.29710686 -0.05819213
 -0.34454945  0.10240607 -0.17510076  0.19651063 -0.03297987 -0.06315868
 -0.22481757  0.0413181 ] [ 0.05532511 -0.20953391  0.09868859  0.13651335  0.09089908  0.35424152
 -0.05969381 -0.09688777  0.1302401  -0.01305018  0.34886426 -0.13189407
 -0.2948346  -0.02129411  0.2085098   0.09050586 -0.17435707 -0.13502933
  0.32419267 -0.01309731] [ 0.17805903 -0.12474237 -0.14240678 -0.03414987  0.26216793  0.09373864
 -0.1872986   0.02047731  0.12032256 -0.14067641 -0.22825386  0.02684975
  0.23028591 -0.06239961  0.02590172 -0.01317789  0.15587223  0.13582022
  0.02982423 -0.15136673] [ 0.13159229  0.05826425 -0.22726321  0.13902347  0.07803167  0.08510432
 -0.25102726 -0.25471845  0.04340125 -0.00360374 -0.04240173 -0.06213363
  0.00220833 -0.01329031 -0.17713428 -0.31121215  0.09874336  0.29637095
 -0.0124707  -0.18203764] [ 0.0219597   0.08204386  0.14755414 -0.01082104  0.2901559   0.12881337
  0.19839993 -0.0493423   0.24114273  0.09507053 -0.05004873 -0.13721046
 -0.04902219  0.05516542  0.07453443 -0.09952933 -0.17863639  0.1311501
 -0.05435783 -0.3521107 ] [ 0.14676443 -0.24589632  0.06285994 -0.0313854   0.02677798  0.33675164
 -0.02669919  0.0502758  -0.18332738 -0.22881834  0.23158085 -0.0343365
  0.09565521  0.3221526  -0.05590782  0.23402622 -0.00721432 -0.38078386
 -0.10005728 -0.02486583] [ 0.17470397 -0.42921796  0.05422666  0.0841737   0.05503595  0.06380481
  0.070664   -0.00078425  0.13096291  0.1101073  -0.2896421   0.13646843
 -0.05941653  0.12902042 -0.20194146 -0.18425818 -0.279248   -0.08013001
  0.00923034  0.47061136] 
Bias:
[ 0.05420951  0.03988188 -0.06535193  0.00446249  0.01339058  0.00764297
  0.01784006 -0.0305712  -0.01688263  0.01507344  0.08251713 -0.00363327
 -0.055796   -0.02610511 -0.08256431 -0.01707324 -0.06081586 -0.07418055
 -0.03783813  0.0127457 ]

From hidden layer through output layer:
[[-0.25823516 -0.21523891  0.1977482  -0.160069   -0.29246852 -0.66463464
  -0.18660522]
 [ 0.03622992  0.35380712  0.24395154  0.30302638 -0.8351472   0.09490894
  -0.73770475]
 [ 0.9303539  -0.1924865  -0.1979637  -0.04724362 -0.20029452 -0.3807731
  -0.44346148]
 [-0.42688257  0.54502857 -0.02107704 -0.7593017   0.72689116 -0.5798801
   0.07953019]
 [-0.8664818  -0.23398145 -0.00359526 -0.40915632 -0.2728832   0.02297569
  -0.64868796]
 [ 0.40493363 -0.06705341 -0.8321823   0.43423432  0.35101897 -0.8973776
  -0.48997992]
 [ 0.64705664  0.27741468 -0.03645975 -0.60189134  0.04833461 -0.3516631
   0.0691855 ]
 [-0.54599565  0.18951295  0.07091448 -0.85829324  0.01467005 -0.78308773
   0.6159872 ]
 [-0.76664054 -0.34483793  0.4631833   0.21577236 -0.04758485 -0.83718556
   0.07796925]
 [-0.436006   -1.1776745  -0.348196    0.11372386 -0.39772046  0.26943114
  -0.2759572 ]
 [ 0.47349527 -0.07457899 -0.70505625  0.6416146  -0.6223947  -0.49722537
  -0.31194276]
 [ 0.4429348  -1.3129921  -0.27185628 -0.6595858  -0.54117197  0.27636334
   0.12339422]
 [-0.4577453  -0.11952952  0.4373875  -0.3728068  -0.19180013  0.42640883
  -0.01294741]
 [-0.27789003  0.25639775 -0.49840206 -0.58516794  0.52028227 -0.5610197
  -0.49588102]
 [-0.10228039  0.3995602   0.43300718  0.3437078  -0.25405127 -0.19753797
  -0.49370387]
 [-0.21865398  0.4284424  -0.6091673   0.09982172 -0.36175868  0.05193866
   0.11619896]
 [-0.80086875  0.5900444  -0.62734336 -0.05685694 -0.47253117  0.73296326
  -0.36452818]
 [-0.59336627 -0.0316424   0.2764661   0.1527964   0.1092636   0.11099508
  -0.36750588]
 [ 0.5788227  -0.10905055 -0.54859334 -0.77924633  0.18777396  0.2797135
  -0.6420443 ]
 [-0.03744929 -0.4912569  -0.72224927 -0.38305527  0.57592505 -0.25883946
   0.76220036]]
Bias:
[-0.1564167  -0.5242106  -0.27049944 -0.23656432 -0.4519094  -0.18891533
  0.13188507]