From input layer through hidden layer:
[ 0.14193574  0.20080963  0.19467068  0.23760659 -0.20727336 -0.18036237
 -0.23370959 -0.17964181  0.23664707 -0.01804492 -0.08341864  0.21826282
 -0.10261151  0.12355575 -0.0955738  -0.23665287 -0.07438841 -0.11134423
 -0.15874758  0.07774684] [-0.17859533  0.1539273  -0.24478501 -0.2533787  -0.02618603  0.11889938
 -0.07706273 -0.01336971 -0.210434    0.1537846  -0.23288311 -0.08851141
 -0.20454437  0.24914044  0.13008443 -0.09793657 -0.06109549  0.14410388
  0.02869719 -0.2633972 ] [ 0.17693463 -0.14198202  0.08946815 -0.1348486  -0.21551844  0.0452486
 -0.15934622 -0.25318637 -0.2612109   0.00562891  0.11381719 -0.23288228
 -0.21672639 -0.26732826  0.18639797  0.17532384  0.01791275  0.17801571
  0.2134935   0.1649701 ] [-0.25292376  0.24282682  0.24501675  0.22014493  0.05357528  0.14045009
  0.22212449  0.2421869  -0.14417908  0.0269931   0.00864932 -0.19723204
  0.10734415  0.03043008  0.05709669 -0.0792876  -0.04307212  0.18799862
 -0.2481002   0.08934417] [-0.1935119  -0.16717952 -0.22868663 -0.18772951  0.05682138 -0.11296199
 -0.06378634 -0.2338435   0.01934096 -0.09551163  0.07720709  0.21835953
  0.08317506 -0.15173352  0.21536902  0.19447869  0.05605271  0.15175402
  0.10770863  0.03186053] [-0.17276493  0.2297526   0.13857713  0.21201786  0.26164955  0.14519265
 -0.24168423 -0.0957547   0.1702446  -0.23354805  0.19624883 -0.16005489
  0.23594916  0.01689279 -0.24266538  0.00675693  0.13987654  0.22978982
  0.01942256 -0.18948421] [ 0.08218274  0.24579138 -0.11643207  0.1637924   0.20711714 -0.15282851
 -0.18487027  0.09726059 -0.09138359 -0.25767875 -0.18217392  0.06774193
 -0.22260821  0.1130009   0.06288436 -0.12316459 -0.25981006 -0.01484811
  0.16175905 -0.09513682] [ 4.70022559e-02  5.43780327e-02  8.18827450e-02 -1.24906510e-01
  8.05336237e-02 -1.26573250e-01 -1.80534944e-01  2.15153307e-01
  1.86478198e-02  1.71618462e-02  1.08989537e-01 -2.68787056e-01
 -1.70760110e-01 -1.43321052e-01 -1.20030418e-01 -2.42959484e-01
  1.42583221e-01  2.12192535e-04  1.17526054e-01 -1.43813878e-01] [ 0.17596659  0.0735563  -0.19848141  0.20464122 -0.0388553   0.16044739
 -0.08155273 -0.04211468 -0.07167251 -0.26816097 -0.15968046 -0.0761517
 -0.2622905   0.12125778 -0.03088745 -0.2426568   0.21900693 -0.15364173
  0.04295364  0.16185033] [ 0.17065075 -0.20608367  0.20941523  0.25177866  0.22006428 -0.17870462
 -0.26558322 -0.19461589 -0.11745912  0.10099882  0.25872868 -0.2269404
  0.06637415  0.04129121 -0.08895718 -0.2273165  -0.14735709 -0.14031425
  0.11213341 -0.20221469] [ 0.14283457  0.13341832  0.02527487 -0.06101139  0.06248897  0.16644534
 -0.13024999 -0.09253694  0.2617131   0.22876477  0.2603842   0.20422795
  0.26040602 -0.18626446 -0.1863558  -0.09450303 -0.0142214   0.03633773
 -0.15319738 -0.19822186] [ 0.09643722  0.0304172  -0.03456639  0.11708328 -0.03354849 -0.10956159
  0.06311539 -0.15352327 -0.11583591 -0.01978415  0.2614264  -0.10488729
  0.09590304  0.07393616  0.00875643  0.09558296 -0.16712639 -0.07444336
 -0.18943515 -0.16836382] [-0.2586912   0.1091007  -0.03796242 -0.17349261  0.21561134  0.04279396
  0.16880068 -0.05864023 -0.14548215 -0.252734    0.14356503 -0.07690516
  0.04056826 -0.2557599  -0.2635028   0.09904817  0.05595049  0.25417924
 -0.11286443  0.19902769] [-0.00203097  0.24562937 -0.11825483 -0.14976326  0.02531675 -0.2175532
  0.04000652  0.19776922  0.15073505 -0.18356541 -0.18495105  0.04237011
  0.08748966  0.09690657 -0.08606756 -0.18562593 -0.2368378  -0.13828328
 -0.06014819  0.16298759] [ 0.05953422 -0.16894703  0.10882378  0.2601273   0.09445888  0.21698225
 -0.02356218 -0.01579088  0.19533274  0.12190092  0.24341261 -0.00764227
  0.21070716 -0.21135049  0.01253235  0.23869151  0.19470927 -0.02113576
 -0.14491965 -0.02677129] [ 0.26527202  0.02968585 -0.21656081 -0.16196841 -0.24733725  0.01168081
 -0.22294186 -0.20699105  0.1824243  -0.08494928  0.1804395   0.01796883
 -0.16384163 -0.19333152 -0.2597815  -0.11284789  0.2126962  -0.06298468
 -0.08254543  0.14767414] [ 0.04534262  0.05942518  0.04925764  0.15801129  0.02637559 -0.2095931
  0.21869916 -0.22587399 -0.1596763  -0.02159077  0.14298785 -0.2132726
  0.04719225 -0.06926526 -0.02027333 -0.23169875 -0.21242504 -0.24677572
  0.17088172  0.22108796] [ 0.07693875  0.06335878 -0.18836421 -0.2330615   0.21508685  0.03305876
 -0.00537297 -0.22404315  0.11106807  0.24513179 -0.1088066  -0.12625498
  0.12156534 -0.1228085  -0.16759062 -0.10852274 -0.10767916 -0.08967455
 -0.02708283 -0.25111347] [ 0.1464651   0.26714993  0.09512669  0.04500648  0.257208   -0.1475287
 -0.00056115  0.03805363 -0.16831568  0.10329646  0.14105162 -0.23626979
 -0.21284594 -0.15714154  0.25153476  0.26696247  0.15456367  0.1540384
 -0.02376206 -0.01482272] [ 0.08560383  0.2424624   0.01697972  0.23308301  0.07363439  0.23837143
  0.23033983 -0.21166125 -0.05345464 -0.081313    0.20250142  0.14963326
  0.14196491 -0.03151587  0.18582106 -0.07124867  0.12759358 -0.12872165
  0.12844235 -0.1250287 ] [ 0.12353894  0.07620701  0.05042481 -0.17728102  0.2595963   0.11872581
  0.125891    0.05230105 -0.13251397  0.0143978   0.05387023 -0.16600344
  0.26508832  0.16392624 -0.04894707 -0.03690723  0.19650307  0.00362828
 -0.04628231 -0.147663  ] [ 0.00751522 -0.00403214  0.07041571 -0.10340326  0.05431426  0.13758162
  0.01753613  0.16372561  0.2461881   0.11751521  0.18205097  0.03972107
 -0.04971829 -0.07226861 -0.06942372 -0.12533133 -0.20356604  0.0300906
 -0.21730499 -0.1604813 ] [-0.04267289  0.22623461 -0.26395133  0.2584291   0.11220744  0.16583389
 -0.15259929  0.05207181 -0.09118789 -0.04410167 -0.00813529 -0.07839766
 -0.12446742 -0.20056903  0.24382073 -0.09667689 -0.19419998 -0.07367156
 -0.22726431  0.03078741] [ 0.26413447 -0.19459096  0.15430513 -0.26458198  0.15387872  0.07533529
 -0.11117698  0.23874676 -0.24585514 -0.10566428 -0.00253591 -0.071577
  0.07734862 -0.09437098  0.17280498 -0.16383073  0.1428172  -0.07766926
 -0.13011827 -0.185226  ] [ 0.06106332  0.16194925 -0.21063991  0.21706352 -0.16564497  0.219603
 -0.0816278  -0.02553052 -0.17933404 -0.12441997  0.20100886 -0.13604693
 -0.06949763  0.20548847 -0.17619096  0.22811624  0.04713282 -0.14636382
 -0.26019844  0.10046336] [-0.24927694  0.17375883  0.24720329 -0.23740095 -0.16827652 -0.00788784
 -0.22597854 -0.21740954 -0.06292383 -0.10830218  0.17520827 -0.26703405
 -0.1238326   0.11920708  0.01724282  0.07052872 -0.08678262  0.12252107
 -0.05915658 -0.21484864] [-0.0856546  -0.06114581  0.24477899  0.00057507 -0.04724225  0.12297875
 -0.23505434 -0.26851308 -0.24765822 -0.26065984 -0.03990389  0.00506231
  0.22367379  0.23139083 -0.05586234 -0.11681373  0.06159794 -0.1126193
  0.0650059  -0.19555551] [-0.11692175  0.07079372 -0.14217651 -0.06656654  0.25353885 -0.00724605
 -0.02534109 -0.1554309  -0.1659967  -0.16245759  0.23104689  0.20785266
 -0.21035567 -0.22517085 -0.18034181  0.20045269  0.19990662 -0.18473893
  0.19653013 -0.00697887] [ 0.14895037  0.24864084 -0.18520631 -0.11807355  0.05454817 -0.1013103
  0.21411735  0.03895831 -0.2432532  -0.10154824  0.25768095 -0.14226496
  0.15350756 -0.11960855  0.11616302 -0.18614432 -0.05068092 -0.24467853
 -0.25338316 -0.22725797] [ 0.26666802  0.10889953  0.13036597 -0.09237412  0.04844809  0.09156707
  0.2087295  -0.04038858  0.19022992  0.11887792  0.25189996 -0.09011045
  0.08058921  0.20694983  0.02804291  0.23926389 -0.01331919  0.06443018
  0.14407113 -0.20539284] [ 0.14189228 -0.04261711  0.00722116  0.02409109 -0.06264839  0.02364117
  0.09618783  0.26384282  0.09947971 -0.25015938  0.00505701  0.00483289
 -0.17509934 -0.1810906  -0.08342627  0.15523136 -0.11785924  0.17869425
  0.00372148 -0.2301133 ] [-0.25435746 -0.26180127 -0.26154786  0.20663837  0.00908664  0.05641836
  0.10017312 -0.23654376  0.04229462  0.00079808  0.02156469 -0.17247896
  0.06190088 -0.00192681  0.18448412  0.1703994  -0.0941111   0.0370374
 -0.2454688   0.10074428] [ 0.19800615  0.21974507 -0.04428692  0.12209722 -0.11987221 -0.19397736
 -0.00662887 -0.07933427  0.06187832  0.15769199 -0.1590313  -0.14683126
 -0.09058078  0.09126258  0.05133209  0.1407404   0.12626806 -0.04319929
  0.14578575  0.07309419] [ 0.22451898  0.00770336  0.16137746 -0.09522143 -0.04209808  0.16052398
 -0.23824453 -0.07397906  0.23654509  0.18456712  0.02030173 -0.06832263
 -0.10174958 -0.1997236   0.09877425 -0.11458175  0.13432315 -0.06799218
  0.07079744 -0.00583783] [-0.19555345 -0.1544432  -0.09626226  0.07051128  0.04976285  0.11094758
 -0.14978044  0.17178908 -0.02793309 -0.22555655  0.24962509 -0.24992797
 -0.1171395   0.26318902  0.01483279  0.07994273 -0.22035833  0.02639404
 -0.19362466  0.08105025] [ 0.03862965  0.13182744  0.22482437 -0.02015428 -0.06200947 -0.07763465
  0.13839456 -0.15446153  0.01576614  0.09858286  0.23144758  0.05696079
  0.06781116  0.08481082 -0.01543242 -0.01277176  0.02129501 -0.13022448
  0.11987919 -0.18724784] [-0.0752724  -0.219513    0.08460036  0.15445155  0.24535167  0.15932316
 -0.12347311  0.07761842  0.14136708 -0.05488645 -0.04978661 -0.22223878
  0.13960823 -0.13994002 -0.25447407  0.05469322 -0.2188      0.15536135
  0.250902   -0.26456615] [-0.14600876  0.01497638 -0.02158801 -0.0110769  -0.17070344 -0.22627258
  0.21991634 -0.19681007  0.03740343 -0.13612014  0.20434168 -0.22994605
 -0.05497581 -0.03633113 -0.1903303  -0.23267639 -0.1381065   0.12605247
 -0.23396735 -0.13212006] [ 0.0566192   0.19762641 -0.2572066   0.24084008 -0.07135098 -0.25417143
  0.15455604  0.12898025 -0.1295348  -0.08661519  0.19695577  0.05979016
  0.16646618 -0.10159555 -0.23004086 -0.22297308 -0.25682518 -0.24482301
 -0.22027871  0.15708327] [-0.12315471 -0.00239533  0.18888792  0.10077569 -0.24222532 -0.02735771
 -0.22797431 -0.1599836   0.23615456 -0.13236564  0.10715991 -0.14585364
  0.14722133  0.17280537 -0.02461411 -0.16048193  0.07922056 -0.02393898
 -0.1739875  -0.02391841] [-0.05959748 -0.07575791 -0.05140726 -0.042725    0.20870093  0.11306462
  0.2555887  -0.16895324 -0.24427436 -0.09144309 -0.14240663  0.04351738
  0.19603607  0.21789819 -0.25781542  0.0092603   0.01515806 -0.26593405
  0.05594465 -0.03010194] [-0.09335276  0.03065631  0.02033421 -0.21227856 -0.02860361  0.24015027
 -0.14728151 -0.16501778 -0.07644945  0.01919955  0.23018074  0.00121629
 -0.23196119 -0.08640583  0.1807468   0.21063817 -0.1428149  -0.20651041
 -0.24045788 -0.07688214] [-0.17377755 -0.17674321 -0.01346087 -0.06674936  0.0766567   0.2509684
 -0.08697115 -0.24030282  0.04682475  0.24708515  0.0418548  -0.12755743
 -0.25299612 -0.20355096 -0.06769732  0.15001151 -0.25843063 -0.16683176
  0.04937315  0.08377987] [-0.00952318 -0.1584095  -0.13656892 -0.1953614  -0.26642364  0.07411867
 -0.14564401  0.14082754 -0.04878591 -0.17738411  0.04965758 -0.21529415
  0.06288871 -0.03427728 -0.06620148  0.25803846 -0.05347739 -0.02426551
 -0.04844956  0.22088942] [-0.00283334 -0.11279404  0.23367053 -0.07313541 -0.09621157 -0.10974897
  0.06364903  0.11442393 -0.11621828 -0.26569712  0.06709847 -0.13998444
  0.01982602  0.05300617 -0.03519537 -0.10802506  0.05867851 -0.0611878
  0.04292154  0.04898244] [ 0.05142072 -0.23163265  0.0708172   0.00139257 -0.25271034  0.0331544
 -0.2415905  -0.12123638  0.09627926  0.14039618 -0.03211381 -0.13158141
 -0.16853535  0.14550015  0.11351681 -0.19618872  0.01442337  0.22680822
  0.09824708  0.17509359] [ 0.08968148  0.07968426  0.10227939  0.14067984 -0.01413319  0.08302253
  0.04815245  0.23269081 -0.07938658 -0.05154745 -0.08901674  0.0901731
 -0.189026   -0.04508218 -0.12192157 -0.19633833  0.12520698  0.05640098
 -0.04883085  0.21394062] [-0.20096463  0.16417694  0.05561048 -0.18118475 -0.13243231  0.18720111
 -0.12983999 -0.22286981 -0.15309736 -0.13984181 -0.15199813  0.06423244
 -0.04958855 -0.01477697 -0.12525716  0.14767736 -0.17403603 -0.11645527
 -0.06520993 -0.01099318] [-0.1449565   0.22035345 -0.01662427  0.10713273 -0.1836333   0.03576651
 -0.20018172 -0.07733664 -0.12958665  0.0726395  -0.04061127 -0.02743444
  0.20328444  0.11848783  0.01703814 -0.11008544  0.07602406  0.14483291
 -0.0957197  -0.25034112] [-0.13363488  0.16211605  0.13610974 -0.25383085 -0.04917809 -0.21398883
  0.18644542 -0.06298357 -0.06695692 -0.266569    0.15545353  0.1111739
 -0.20618695  0.12096593 -0.1797836  -0.04067685  0.11746976 -0.10823967
  0.14781094  0.07357329] [ 0.19660646 -0.14779082  0.08412063  0.10864237  0.16911542 -0.22869733
 -0.16927415  0.15775374 -0.19820051  0.11725298  0.17001805  0.07927939
 -0.25353158  0.10947409  0.18373778 -0.21749486  0.19708544  0.01965338
 -0.12059516 -0.25722003] [ 0.19332927 -0.12295844  0.00305104  0.0394389   0.23026553 -0.02612688
  0.23410672  0.21100944  0.04669738 -0.18988106 -0.11238097  0.01462159
 -0.00812477  0.05181816 -0.05617574 -0.09372225 -0.08852628 -0.17493038
 -0.19420262  0.16020098] [-0.00354186 -0.24919425 -0.18783452 -0.15867218 -0.17525634  0.07387611
  0.24748957 -0.10092856  0.09943265 -0.13864297  0.15109935 -0.24360481
  0.22586128  0.18018064 -0.18672395  0.26733196  0.07048148 -0.18108751
  0.01517043  0.14179477] [-0.24636449 -0.20335585  0.19708294  0.11885619 -0.0904879  -0.21899474
  0.24851394 -0.24812745 -0.0246768  -0.05766228 -0.2556967   0.2680564
 -0.25362784  0.0595066  -0.25194073 -0.16556874 -0.08506146  0.08715051
 -0.10452069 -0.09202167] [ 0.01654607 -0.21413171  0.19854751 -0.06266133 -0.05222458 -0.11730893
 -0.2152996  -0.1518739   0.07898587 -0.1802254   0.14786497 -0.014364
  0.18015763  0.12425017  0.17045197  0.1596179  -0.15178376 -0.05569567
 -0.16644996 -0.11034442] [ 0.20458105 -0.20427752  0.02240917  0.20735136  0.13437474 -0.07801029
  0.16129586  0.09796971 -0.21196178 -0.04379326  0.15342057 -0.04845752
 -0.18364304 -0.20408848  0.20936182  0.19012979  0.12618679 -0.17961091
 -0.18844843  0.01125202] [ 0.21784857 -0.26584852  0.14642644 -0.04202871 -0.19921294  0.2140376
  0.03184921  0.1062673   0.06726518  0.1256487   0.16093346 -0.01974864
 -0.23551036  0.02119216 -0.09956054  0.14337671 -0.08433011  0.0337474
 -0.20155096 -0.1766182 ] [ 0.05930459 -0.21010119 -0.02885816  0.11316198  0.19203913  0.03735831
 -0.17088768  0.03059074  0.15791047  0.06924835  0.10939896 -0.112207
 -0.11141987 -0.14208156  0.24403745  0.10525492 -0.15995367 -0.02854073
  0.25417054 -0.10517614] [ 0.15611386 -0.12210715 -0.091207   -0.07983933  0.19013247  0.16032636
 -0.12513678  0.04843315  0.08158499 -0.16475971 -0.20645976  0.1353111
  0.1935539  -0.0857691   0.07536861  0.01323396  0.11462784  0.08461556
  0.05089924 -0.09828061] [ 0.12300101  0.0239473  -0.18483476  0.0500938  -0.05500099  0.03556004
 -0.13450174 -0.1901626   0.01467204 -0.03250432  0.02349609  0.1345729
 -0.06915052 -0.15965694 -0.19249107 -0.22166076  0.01587683  0.12376964
 -0.10868365 -0.06781679] [-0.0023441   0.02292347  0.13717118 -0.08975655  0.17167363  0.03242278
  0.258119    0.04670328  0.25592172  0.07250541 -0.0536599   0.01682267
 -0.07195584 -0.0998476   0.06254959  0.00407737 -0.24449743  0.0015527
 -0.21917954 -0.22710188] [ 0.17410794 -0.18480578  0.06471166 -0.24137487  0.07620451  0.26656544
 -0.2232102  -0.15320224 -0.13306731  0.01818562  0.2645474  -0.04177974
  0.1496855   0.18361342  0.00079045  0.24169844  0.04717475 -0.2655352
 -0.18803433 -0.15689495] [ 0.2456283  -0.12376331 -0.04684789  0.07266861  0.1577039  -0.05409054
  0.02732015 -0.00763598  0.13832673  0.0306356  -0.23574543 -0.03416042
 -0.01350081  0.01464561 -0.05590375 -0.03862569 -0.13295141 -0.01814917
 -0.13238834  0.23657906] 
Bias:
[0. 0. 0. 0. 0. 0. 0. 0. 0. 0. 0. 0. 0. 0. 0. 0. 0. 0. 0. 0.]

From hidden layer through output layer:
[[-0.1487658  -0.04434398  0.12177834  0.07920459 -0.23216821 -0.16412678
  -0.4271735 ]
 [ 0.24407712  0.39356378  0.14700034  0.26506826 -0.45335498  0.07411471
  -0.4644423 ]
 [ 0.45586315  0.00173768  0.00741437  0.21921721  0.26370373 -0.21275514
  -0.43419087]
 [-0.17427486  0.42835304 -0.02066949 -0.37666404  0.33644828 -0.33008277
  -0.02357695]
 [-0.46224764  0.08094028 -0.12676254 -0.28540915 -0.21784547 -0.04672062
  -0.4325621 ]
 [ 0.34732208 -0.12720987 -0.20347959  0.19847223  0.37271157 -0.46322635
  -0.34926745]
 [ 0.379734    0.43998626 -0.07405707 -0.24754934  0.2514945  -0.13633493
   0.08026168]
 [-0.45361394  0.37615094  0.00055343 -0.44630456  0.14601502 -0.25037724
   0.29597238]
 [-0.35634857 -0.03324836  0.34821513  0.07615182 -0.00111851 -0.34404767
  -0.1363436 ]
 [-0.39675358 -0.46229035 -0.2901379   0.20220855  0.07685795  0.41231307
  -0.40697086]
 [ 0.39523384 -0.13298634 -0.33344913  0.20868793 -0.17473117 -0.16717744
  -0.34361506]
 [ 0.4390737  -0.42558393 -0.2647992  -0.20566481  0.10050878  0.17454728
  -0.23422015]
 [-0.36253113  0.2543145   0.11031976  0.11592677  0.28686157  0.14840433
   0.0767459 ]
 [-0.2101987   0.13373151 -0.15436313 -0.29041258  0.26904538 -0.39481616
  -0.43662912]
 [ 0.10227761  0.45999995  0.24550787  0.23850158 -0.05359438  0.15099105
  -0.1268583 ]
 [-0.12722975  0.44845226  0.07356974  0.00389639 -0.08535084  0.16991499
   0.03488049]
 [-0.42650846  0.42736354 -0.23420183  0.03822538 -0.03897762  0.46086624
  -0.2892091 ]
 [-0.16118437  0.35388854  0.3378788   0.1023747   0.15587065  0.20686337
  -0.18872571]
 [ 0.3746486   0.22129264 -0.09020764 -0.23917966  0.3266023   0.0129683
  -0.4651332 ]
 [-0.00414073  0.04411873 -0.37968692 -0.1991016   0.4489552  -0.15129629
   0.36345902]]
Bias:
[0. 0. 0. 0. 0. 0. 0.]