From input layer through hidden layer:
[ 0.23386168  0.04637647 -0.20623451 -0.01443216 -0.18567324 -0.251847
  0.22879899  0.17009133  0.18230984 -0.10224241 -0.00193912  0.2362712
  0.07593638  0.02247277 -0.250977    0.15549296 -0.06916077 -0.19433615
 -0.04042512  0.24178714] [ 0.06102505 -0.09685355  0.01141119 -0.19679794  0.21334568  0.21806833
 -0.20432194  0.26450437  0.16772825 -0.12710735 -0.12095708  0.24525642
 -0.19011214  0.14769346  0.17421037  0.12403721 -0.21129158 -0.09877709
 -0.0777144   0.14799646] [-0.2682893  -0.02730834 -0.00426522  0.05921575  0.15463719 -0.22526643
 -0.18661079  0.1328755  -0.24462648 -0.17426851 -0.05324867  0.22161102
  0.06126928  0.19000432  0.01033998 -0.10554774 -0.23976819  0.2193391
  0.24522388 -0.07232502] [-0.13330199  0.2157008  -0.10126248 -0.16945793  0.05576229  0.20566258
  0.14514491 -0.18687707  0.05487713  0.018805   -0.06779423  0.23033485
  0.15570986 -0.24791496  0.08962744 -0.18009245 -0.16214547 -0.17345044
 -0.03856146 -0.05872838] [-0.02929726 -0.18161488 -0.21498261 -0.03424414  0.07504657 -0.19084145
 -0.25157925  0.1741809  -0.11122616 -0.06917103 -0.07433452 -0.19764
  0.01054451 -0.22707778 -0.07153834 -0.08079274  0.26585507 -0.20608714
  0.07491553 -0.18982068] [-0.07650554  0.20197251 -0.00715682  0.26332712  0.17939186 -0.08690166
  0.1751211   0.0499149   0.03707331  0.19289023  0.04930452  0.23267293
  0.07597625  0.1774573   0.09014976 -0.2507706   0.12193739 -0.10527261
 -0.14792402  0.21929333] [-1.12523973e-01  1.06972814e-01  6.64782822e-02 -1.56267703e-01
  1.52647436e-01 -8.89599323e-05 -1.79533154e-01 -1.51755899e-01
  1.86808825e-01  2.03963727e-01  1.24569714e-01  1.48632348e-01
 -1.68106258e-02  1.08379364e-01 -1.67882800e-01 -2.52224773e-01
 -1.27683640e-01  1.98412687e-01 -2.00332120e-01  6.18338585e-04] [ 0.14930993 -0.16660139  0.15894681  0.24871093 -0.2526194   0.24092299
 -0.14929241  0.23946154  0.2161139   0.23955512 -0.13572879 -0.17751545
 -0.0327801  -0.16065136 -0.1609163   0.14736775  0.10298869  0.09681001
 -0.02658226  0.08584929] [ 0.00690803  0.10506177  0.11518019 -0.24378847  0.18482277 -0.26682153
 -0.2384896  -0.18952665 -0.23445715  0.09968093  0.26837105  0.19018644
 -0.07044007  0.10331678 -0.17731558 -0.21946429  0.12981665 -0.24878201
  0.0675177   0.06198204] [ 0.14496556 -0.03168619 -0.2123817  -0.06283979  0.07394913 -0.265512
 -0.02891348  0.10327524 -0.00442898 -0.08900763  0.15070543  0.19980621
 -0.23888019 -0.02961208  0.17912468 -0.17927693  0.00340399 -0.17099409
  0.11956221  0.17636648] [ 0.20761228 -0.16810799 -0.13390282 -0.04895341  0.24078012 -0.07631253
 -0.23574972  0.16262773  0.16829607  0.17983893  0.05365363 -0.06150711
 -0.14107983 -0.03103246 -0.16384195  0.2488029   0.21334755 -0.01096228
  0.157045   -0.22069211] [ 0.26026845 -0.23114869  0.093642    0.06911662  0.00318962 -0.12596197
 -0.01585761 -0.03816453  0.09213662  0.2392978   0.033151    0.18900278
 -0.15658359 -0.12382644  0.12609255  0.2658738  -0.15703103  0.14516124
  0.07937169  0.08546653] [-0.03339477  0.13261032  0.24016237 -0.01950628 -0.10908602 -0.09479393
  0.03309861  0.18228623  0.01516113  0.24467671  0.12658504 -0.18852958
 -0.03120503  0.07637811 -0.17531237  0.04445538  0.16087604  0.2522425
 -0.20185661  0.1371947 ] [-0.2610428  -0.26667115  0.0871473  -0.25858447  0.01830113 -0.12262253
  0.22688654 -0.26512027  0.19983745 -0.2300358   0.26130432 -0.23905063
  0.123366    0.00773612 -0.26836917 -0.09588015  0.01750076  0.22696045
  0.19200638  0.24207944] [ 0.23749    -0.08235107  0.08382422 -0.23933704  0.1490733  -0.23756102
  0.13400757  0.14791548 -0.22338673 -0.16698432  0.04533845  0.11917573
  0.18286419 -0.19252157  0.01009816  0.26832432 -0.06120788  0.14664826
 -0.216146   -0.22270429] [-0.03088573  0.13691893  0.10157451  0.03754836 -0.2512858  -0.26673475
 -0.08660096  0.0955756  -0.16832492 -0.19398646  0.04386672  0.11596707
 -0.15585122 -0.21729602  0.2033706   0.10698038 -0.01214036  0.08620691
  0.23252344 -0.13349327] [ 0.22461808 -0.04888828 -0.22726169  0.24486166  0.12082848  0.02299243
  0.04472199  0.05702549 -0.00428817  0.12155971  0.24679261  0.08328715
  0.25578964 -0.16829677 -0.12720953  0.09401804 -0.24687578 -0.26860103
 -0.00587624 -0.0520608 ] [ 0.00271648 -0.11798272  0.19444242  0.08112922  0.10814622  0.25728047
 -0.08105978 -0.21611005 -0.24158922 -0.26062506  0.00169012 -0.02633123
  0.05648252 -0.07206751 -0.09025899  0.10324395  0.00943297  0.09171015
  0.10026619  0.06161031] [ 0.00885811 -0.1133859   0.24961293 -0.26203725  0.13028333 -0.08833481
 -0.26163536  0.06939054 -0.21777928 -0.1955855   0.25680977  0.09475157
 -0.17967975 -0.04957207 -0.01977563 -0.2656802   0.03169957 -0.12215209
  0.12165818  0.07745093] [-0.16037495  0.20905498 -0.11370918  0.04132831 -0.04621346  0.08145657
 -0.1572218   0.21661395 -0.02021538  0.1812725  -0.20821875  0.05893877
 -0.23450215  0.11145514  0.10640404 -0.26843354  0.20860824  0.06598884
 -0.20614406 -0.00198585] [-0.23767665 -0.17752776 -0.02941687 -0.22827111  0.13842887  0.1310175
 -0.2620284  -0.07292938  0.12819487  0.24451113  0.22515771  0.05888203
  0.04256487  0.23279    -0.04417475  0.15991116 -0.23629928 -0.25935766
 -0.20541868 -0.25561464] [-0.04037525  0.03159413 -0.0147092   0.23919576  0.18226475  0.20925894
 -0.01663837  0.05920422 -0.10429902 -0.14031085 -0.10494357 -0.17132217
 -0.07969068  0.05847511  0.21159586  0.05856389 -0.0357403  -0.0067772
 -0.033786    0.13695103] [-0.02891836 -0.0035643  -0.03588587  0.17611384  0.13233185  0.20702335
 -0.24750014 -0.00554994 -0.09540835  0.22324744 -0.05757639 -0.03271209
 -0.17310512 -0.19797295 -0.03115997 -0.21642825  0.21119419 -0.21987371
  0.0701502   0.07215917] [-0.26498973 -0.06775513  0.0533638  -0.1244285  -0.26750758 -0.0638541
 -0.17804417 -0.22042647  0.23627573  0.03969011 -0.03935985  0.02193007
 -0.05313087 -0.02076955  0.23131555  0.18855035 -0.02605334 -0.2366062
 -0.10825403  0.24472243] [-0.08964655  0.00395808 -0.02658212 -0.07699144 -0.23782915 -0.15883252
  0.08047441 -0.20892285  0.17213795  0.23381877 -0.15147859  0.05532125
  0.05997562  0.04775026  0.15476033 -0.1995218  -0.09301604 -0.05346426
  0.22154519  0.0336912 ] [-0.02275622  0.03097028 -0.04358275  0.12859929 -0.15010601  0.13294455
  0.01266146 -0.20750727 -0.19131684 -0.16393209 -0.12175503 -0.11519007
  0.1126357   0.00381976  0.17671686  0.01164183 -0.15433262 -0.09021783
  0.10123369 -0.25364733] [-0.12091073  0.2648477  -0.24481936  0.07977381  0.23749381 -0.01668036
  0.21759307 -0.14904389  0.23460978 -0.04833527  0.16527888 -0.13900714
  0.1393536   0.00835824 -0.16661143 -0.17433512  0.25889987 -0.24053037
 -0.14425677  0.15935245] [ 0.01492447  0.16287425  0.2162894   0.02133146 -0.10738377  0.2630306
 -0.11018308  0.12955648  0.0761013  -0.18568105  0.10594895  0.1906403
 -0.13197865  0.05571592 -0.10686697  0.2362138  -0.06757891 -0.2236218
  0.24113804  0.24150753] [ 0.05054271 -0.15142839 -0.12917486 -0.15918764  0.10675442 -0.08931179
  0.14540029 -0.19065414  0.25018066 -0.17163101  0.18851438 -0.13000089
  0.19482902  0.09107378  0.13285732 -0.09005885  0.09098148 -0.23320542
  0.21040574  0.26860315] [-0.08188947 -0.21715102  0.04565451 -0.01802203  0.00796804  0.03884813
  0.00165859  0.12396863  0.08399448 -0.15670058  0.17105755 -0.09014916
 -0.19597378 -0.08730736 -0.03839844 -0.18540695 -0.16906933 -0.0039995
 -0.21932615 -0.18840516] [-0.15667866  0.2539785  -0.2667711  -0.17974854 -0.08714364  0.07978791
  0.2476688  -0.0482145   0.14229983  0.00509334  0.22022033  0.11534628
 -0.25922894  0.16699588 -0.06175832 -0.18639112  0.07374683 -0.07355477
 -0.0794912   0.20341271] [-0.01006818 -0.06215101 -0.08560967  0.14699799 -0.02301712 -0.2557287
  0.20421925  0.18970338  0.01119336  0.23241043 -0.1252419  -0.24817911
 -0.20148186  0.13721097 -0.08374691  0.20536977 -0.00970304 -0.07279944
 -0.06452134  0.26736432] [-0.01872697  0.23991853  0.26506555 -0.04263371  0.2154235   0.05391106
  0.05386427  0.01162463 -0.06187262 -0.20957945  0.03181055 -0.17987186
 -0.08841391 -0.0304347  -0.05483393  0.1297462   0.26485026  0.24635315
 -0.0029116  -0.00406757] [-0.12855646 -0.03802946  0.1957491  -0.17807513  0.18198976  0.15116581
 -0.0970906   0.17275101  0.2625721   0.06026134 -0.25866678 -0.0066188
 -0.21215388 -0.08661968  0.19469282  0.2668022  -0.21109356 -0.19473845
 -0.23308016 -0.23329157] [ 0.01235998 -0.17250499  0.08225915  0.22498494  0.22537616  0.1134629
  0.23435348  0.25296307 -0.14989677 -0.11396495  0.18522945 -0.20585668
  0.24129498  0.02023295 -0.02920002  0.21993443 -0.11726746  0.22267249
  0.19726577 -0.06802462] [ 0.21874088 -0.14149003 -0.15415725  0.05831888 -0.16413644 -0.09949023
  0.03850862  0.13150859  0.16324419 -0.11868496  0.13501507  0.19615108
 -0.0556481  -0.06276064  0.04509705 -0.01005971 -0.17654672  0.16754639
 -0.24644591  0.26288402] [ 0.0402478  -0.09410995 -0.01383287 -0.19904974 -0.25257027  0.09260726
 -0.00758824  0.17112166  0.22688931  0.22194815 -0.14472586  0.06643879
  0.13388526  0.15781686  0.25663722 -0.09295398  0.18445373  0.20351604
 -0.1731298   0.14762357] [ 0.18882549  0.13425833 -0.05823728 -0.03407478  0.16954935 -0.16828363
  0.0545617   0.05303138 -0.1169613  -0.2400323  -0.05869395  0.00278687
  0.11327115 -0.18765408 -0.12512228 -0.03579536  0.22795495  0.26841682
 -0.15806565  0.20794335] [-0.07667695  0.15169999  0.14529857  0.19670045  0.08965319  0.10446358
  0.1367074  -0.20841977 -0.19502652 -0.20186725  0.02681604 -0.00457937
  0.19555107  0.22013417 -0.12470043  0.23635346 -0.03372516 -0.03695799
 -0.21972236 -0.0726497 ] [-0.03281106  0.1718789  -0.11033526 -0.21065587  0.00587463  0.04279095
 -0.19658595  0.0486095  -0.1858072  -0.03871895  0.19230345  0.19865808
  0.19986397 -0.0397898   0.05539215 -0.02457045  0.12736249  0.00910497
 -0.14044996 -0.01975307] [-0.14334984 -0.1770648   0.01623762 -0.17761385  0.20260814 -0.09373392
  0.00600195  0.10097939 -0.2331849   0.20600161 -0.26733264  0.23621327
  0.03520221 -0.20277789 -0.05287233  0.11514381  0.09850228 -0.25339162
 -0.14187913  0.24736208] [-0.2560813  -0.23746178  0.15311274  0.17682949  0.16296408 -0.00442746
  0.02407226 -0.14076784  0.11780477 -0.07217041 -0.23267612 -0.03813113
  0.22808182 -0.22926073  0.14682254  0.15804031  0.12697324 -0.18469065
  0.09428892 -0.10642017] [ 0.0272111  -0.23080663  0.04126191 -0.13622847  0.26164532  0.12179726
 -0.2181787  -0.05452509 -0.04816732  0.24022174 -0.01942916  0.02271077
  0.12441614 -0.06421602  0.02443072 -0.16376567  0.13767758  0.06530979
  0.11037114 -0.11468577] [ 0.15141371  0.11234641  0.00127885  0.20309463  0.02735117  0.04022211
  0.20902374  0.1901544  -0.05754921 -0.10274933 -0.21832518 -0.20935887
 -0.01902704  0.00687554  0.26352084 -0.19232172 -0.19154876 -0.2660248
 -0.06798898  0.095909  ] [ 0.19850531 -0.2502806   0.21691677  0.18618438  0.23445177  0.21533492
 -0.0085054  -0.18650317 -0.07804433 -0.13045551  0.12571356  0.13010493
 -0.23455665 -0.26139927 -0.10047798  0.23128802 -0.04884046  0.08066535
 -0.01730767 -0.26050332] [-0.16123758  0.16603819 -0.18217604 -0.21753365 -0.15374775  0.21962851
 -0.2270574  -0.09309828 -0.1880683  -0.1846081  -0.15887892 -0.16670164
  0.07771331 -0.0342869   0.03697139 -0.18736568  0.01416793 -0.09044334
 -0.05520336 -0.09967536] [-0.22627328  0.19472703  0.08274654  0.2510609  -0.07206579  0.10979328
 -0.07624304  0.11432475 -0.03559639 -0.22863913 -0.12005073 -0.09558316
  0.24543208  0.1687628   0.18909824  0.05088514 -0.06127472 -0.24724847
 -0.00467032  0.22870407] [ 0.10013908 -0.23555459 -0.02351449  0.19730398 -0.18534265  0.16483548
  0.15575358 -0.12499818  0.08322069 -0.11704598 -0.24976027 -0.1649181
 -0.22022718 -0.09857996 -0.00932637 -0.01155221  0.23863    -0.14867581
  0.08352807  0.22264886] [ 0.12403336  0.10687324  0.21577421 -0.02948515  0.21891648  0.05560374
  0.04821727 -0.24593846  0.19570038 -0.10261196  0.03828132 -0.13015704
 -0.03956941 -0.21751973 -0.0828471  -0.01044491  0.15773693  0.23311639
 -0.14401254  0.21638474] [-0.05126278 -0.23791222  0.20144898 -0.10713801 -0.18844208 -0.0260679
 -0.21612057 -0.18815285  0.04473129 -0.08197106 -0.13013378 -0.17986295
  0.13312957  0.25529385  0.1734384  -0.04011479 -0.2231368   0.1367675
 -0.11256513 -0.03074676] [ 0.22065815 -0.22867335  0.23409879 -0.21211812  0.00051397 -0.07807799
 -0.16218092  0.03671274  0.08342749  0.19922686 -0.12379035 -0.23438235
  0.18037039  0.0402768   0.17619315  0.13391384 -0.16858697  0.03177547
  0.14897493  0.11066771] [ 0.17236716  0.11896938 -0.09944747 -0.0669893   0.14689273  0.13742065
  0.00173476 -0.24487488 -0.10828346  0.18226919  0.10441479  0.03790319
 -0.15845495 -0.20166571 -0.24730001 -0.11692245  0.22772586 -0.2607876
 -0.07520016 -0.033959  ] [-0.19727634 -0.23541953  0.23803264 -0.13669117  0.06638315  0.2687319
 -0.04141377 -0.10006548 -0.20530239 -0.01658621 -0.23684825 -0.1516737
 -0.08285691  0.24020988  0.11401609  0.06173724 -0.16151495 -0.09120207
  0.04557884 -0.15402287] [-0.08501595  0.2626562  -0.0555276   0.2641049   0.20509803 -0.20967138
 -0.15974969  0.12380657  0.00791618 -0.16316278 -0.18226925 -0.02731399
  0.16773799  0.08169317  0.06987181  0.1675264  -0.1812361   0.09628117
 -0.2194446  -0.23246157] [ 0.19487628 -0.21135767  0.16456273 -0.00380519 -0.13683662  0.26616764
  0.1607295   0.15279114 -0.21784025 -0.16002533  0.06920275 -0.08620518
 -0.02680674  0.10728729  0.03554919 -0.22141628  0.20725271  0.24357867
 -0.196515   -0.24915393] [ 0.0108119  -0.26652455  0.21720353 -0.04475045  0.13282448 -0.18827529
 -0.02819867 -0.23803818  0.09087661  0.20635304  0.22411186  0.01909596
 -0.24989636  0.03909037 -0.13648315  0.13073981 -0.1496987   0.02333358
 -0.17150474 -0.21127048] [ 0.20550162 -0.14785421 -0.07168674 -0.11889631 -0.19081536  0.1537852
 -0.21592966 -0.24103615 -0.25563473  0.06997937 -0.24795873  0.19775167
 -0.07862209 -0.21360146 -0.2163012   0.17765117 -0.12453805  0.13192487
 -0.1188283  -0.19256037] [-0.01629978  0.26699197  0.08867943  0.0124715   0.23535103  0.16708723
  0.14136368  0.22039583 -0.2659711   0.04779655  0.19338101 -0.10088234
  0.01750442  0.15153673 -0.25436524 -0.13731962  0.18704784 -0.01718056
 -0.00559917 -0.20573322] [ 0.03567812  0.04282019 -0.23210388  0.20205879 -0.16637138 -0.02434181
 -0.02060474 -0.24909925 -0.2511417   0.0417116   0.18447405 -0.12841903
 -0.08529449 -0.05660722 -0.22397667  0.11830926  0.05512553 -0.0939711
 -0.14584716 -0.1691946 ] [ 0.09044579 -0.24196474  0.09983593  0.17859563  0.03991628 -0.02767585
 -0.24586628 -0.13046077  0.21465254 -0.24686533 -0.1779275  -0.11735457
 -0.06304057 -0.18764612 -0.17663065 -0.13879168 -0.09022629 -0.02525404
  0.15148744 -0.09461509] [ 0.18585125 -0.143629   -0.11188078  0.09502259  0.22510079 -0.00425348
  0.17224967 -0.13431635 -0.18388855 -0.08648057  0.0168435  -0.04724629
 -0.05054027  0.04831603 -0.09514746 -0.04838002 -0.23854788 -0.0722886
 -0.1807206  -0.05320291] [ 0.2411536  -0.1106109  -0.26052165 -0.13181333  0.07044008  0.01443997
 -0.25364092 -0.00265083  0.17891604  0.04558423  0.21735832  0.02753592
 -0.00703976 -0.05415381  0.14835978  0.25070214  0.18228054  0.19849873
  0.14336061  0.04625911] [ 0.2014648  -0.23428574 -0.22486609  0.23377544 -0.10223208  0.07946056
  0.2173146   0.05385119 -0.20642406  0.25944126 -0.19941795  0.12802786
  0.1476939  -0.1272944   0.17489365  0.02092147  0.10043338 -0.13559924
  0.11335072 -0.04537795] 
Bias:
[0. 0. 0. 0. 0. 0. 0. 0. 0. 0. 0. 0. 0. 0. 0. 0. 0. 0. 0. 0.]

From hidden layer through output layer:
[[-0.28964326 -0.34901175 -0.2394131  -0.33239138  0.37932464  0.00144231
   0.40601406]
 [ 0.45714977 -0.26346985  0.0863618   0.13207957 -0.24556597 -0.34350616
   0.14229903]
 [-0.1893641  -0.29779625 -0.14862216  0.22474858 -0.22402714 -0.01466417
  -0.4210459 ]
 [ 0.0766851  -0.44320345  0.11306718 -0.2512732  -0.30097458  0.18519238
  -0.3852541 ]
 [ 0.25405875  0.28425542  0.38140312  0.24791083 -0.45856783  0.22418877
   0.41600797]
 [-0.33511883  0.239256   -0.32989338 -0.14825991  0.02008674  0.44110623
  -0.0716401 ]
 [ 0.3846325   0.19510123 -0.39886788 -0.12221822  0.298906   -0.39025736
   0.32806638]
 [ 0.11085621 -0.40380165  0.38014165 -0.30553925 -0.38636544  0.30825135
   0.04955503]
 [ 0.2708083  -0.28405988 -0.11502537  0.43425462  0.05679426  0.1156024
   0.37741008]
 [-0.42595202 -0.22016335  0.40243855  0.2938039   0.16848353 -0.36521897
  -0.4459485 ]
 [-0.09808427 -0.01567829  0.18930545 -0.2830153   0.2976878  -0.39485145
  -0.33519906]
 [ 0.09378812  0.08181974 -0.26880282  0.38685074  0.31164357 -0.24854885
   0.15136674]
 [ 0.0423623   0.18254957  0.19243261  0.05575028 -0.43951082 -0.39818612
  -0.35863924]
 [-0.15656531 -0.02926812  0.27027068 -0.04247189 -0.14686906 -0.3602971
   0.14936885]
 [ 0.31465587  0.13542625  0.11598507 -0.06003666  0.21183446 -0.1427306
  -0.33880246]
 [-0.21080697 -0.4583935  -0.04931989 -0.19146651 -0.33520222  0.43044832
  -0.3472488 ]
 [-0.39992145 -0.02319953  0.00332332  0.17774686  0.19643834  0.36395064
  -0.39463174]
 [ 0.19454685  0.45046607 -0.17946297 -0.28467926  0.34462604 -0.11337435
  -0.28811026]
 [-0.09804222  0.02822152  0.34937993  0.31611475  0.26867738 -0.12420407
   0.00955138]
 [-0.45564914  0.089138   -0.11461335  0.12563023 -0.05854198  0.11373892
   0.16473708]]
Bias:
[0. 0. 0. 0. 0. 0. 0.]