From input layer through hidden layer:
[ 0.3341646   0.00877236 -0.2276374  -0.2949825  -0.28354278 -0.14428803
  0.38668576 -0.11222267  0.26847184 -0.07856943 -0.07618248  0.513479
 -0.01448554  0.06987359 -0.38085398 -0.05547464 -0.01438138 -0.24021198
  0.01475422  0.4303082 ] [ 0.10651486 -0.16984455  0.01830906 -0.42369303  0.10644221  0.32878625
 -0.08192842 -0.05032008  0.2184079  -0.06369515 -0.15732844  0.47693738
 -0.22715084  0.12436496  0.13570124 -0.04925581 -0.1165949  -0.1135671
 -0.00922227  0.26237226] [-0.32600856 -0.0498354  -0.02931815  0.0095804   0.18338509 -0.29244447
 -0.1867053   0.04625887 -0.31003514 -0.05115552  0.0120525   0.2670989
  0.16492723  0.2766255   0.0477941  -0.21925844 -0.2280783   0.19129215
  0.35839713 -0.11315536] [-0.3297304   0.18964314 -0.03776734 -0.07210064  0.05437541  0.15895152
  0.1710233  -0.29055175 -0.0941162   0.19386669  0.09516666  0.24601461
  0.3446863  -0.30852312  0.33585873 -0.1790376  -0.07172557  0.00707228
  0.06631842 -0.25568858] [-0.05353118 -0.38474774 -0.1392691  -0.02425243  0.06460717 -0.1049316
 -0.3546019   0.01939765 -0.2656189   0.20578147  0.0722456  -0.19758098
  0.02207501 -0.25078186  0.01275104 -0.07957263  0.517345   -0.12722325
  0.21769676 -0.18650025] [ 0.17119707 -0.03338906 -0.10577826  0.18463351  0.19577225  0.14687067
  0.27884975  0.01577517 -0.03107579  0.10291714  0.1419169   0.16085935
 -0.16454972  0.19604918 -0.02314181 -0.26048037  0.24010572  0.02660637
 -0.2612993   0.498687  ] [ 0.23884755 -0.01597361 -0.00216402 -0.03620481 -0.00464457 -0.09188031
 -0.26029682 -0.05882825  0.13569938  0.28289357  0.21136597  0.03563273
 -0.3207565   0.10438194 -0.22967023 -0.20148829 -0.01241667  0.13881634
 -0.15255147 -0.00696651] [ 0.18259108 -0.16986021  0.15793817  0.0808688  -0.34581608  0.25226894
 -0.08708416  0.03955781  0.24936944  0.2801104  -0.15859434 -0.03462866
 -0.12529194 -0.12633437 -0.20689172 -0.00749658  0.14330143  0.06553976
  0.03116868  0.13048102] [ 0.04019458  0.09430303  0.0556621  -0.23865315  0.30925915 -0.37673622
 -0.31799364 -0.10921782 -0.30253124  0.20355886  0.34723854  0.10496759
  0.01214209  0.2731947  -0.23126832 -0.27415353  0.123427   -0.28819215
  0.16613726  0.0653796 ] [ 0.16063061 -0.0171308  -0.21823613 -0.09064809  0.0698973  -0.31949896
 -0.06584617  0.05636526 -0.00773082 -0.06148442  0.17600623  0.16471042
 -0.25606894 -0.01394135  0.19508597 -0.22533152  0.01647461 -0.16450533
  0.14970335  0.13282518] [ 0.08137015 -0.01051961 -0.13476083  0.03185116  0.23389716 -0.19669622
 -0.16412945  0.18432155  0.18044573  0.09560988  0.07302807 -0.09797479
 -0.01740598 -0.09498354  0.00392638  0.25309387  0.08577941  0.09194539
  0.11671767 -0.42607468] [ 0.37078914 -0.15161607  0.03303367 -0.03820149  0.01432341 -0.18859804
 -0.00192283 -0.00203564  0.17235668  0.17430423 -0.02533271  0.20323515
 -0.2475819  -0.00090552 -0.02584647  0.16888471 -0.22794959  0.05260639
  0.07631648  0.1651097 ] [-0.02115489  0.12971702  0.35040152 -0.01869047 -0.14488576 -0.10236049
 -0.24700542  0.23521538  0.1433473   0.32668757 -0.07950296 -0.16642225
 -0.07930867  0.04114537 -0.32747003  0.15991677  0.20079869 -0.07079113
 -0.14732137  0.18205684] [-0.27834854 -0.4136481   0.02358276 -0.2215911   0.18491822 -0.07346375
  0.28351334 -0.29878813 -0.03306887 -0.12907414  0.5186933  -0.39032555
  0.22213528  0.09372244 -0.12505823 -0.15579051  0.13078357  0.51839405
  0.21966673  0.23709671] [ 0.22137149 -0.07657903  0.04954647 -0.2615275   0.18903747 -0.37835568
  0.057966    0.15764102 -0.30780992 -0.03319179  0.12741762  0.07761822
  0.18803321 -0.01708119 -0.0218897   0.1609286  -0.05482217  0.08408468
 -0.08734488 -0.27502298] [ 0.05180058  0.11712918  0.07532554 -0.10296825 -0.26001048 -0.22450864
 -0.02785512 -0.03374475 -0.11872027 -0.18334568  0.0177895   0.21519247
 -0.17094985 -0.18854144  0.13543029  0.00482241  0.01539707  0.07809021
  0.26009282 -0.03314514] [ 1.9776049e-01  3.6188729e-02 -2.2398202e-01  2.7034834e-01
  1.1396236e-01 -5.7392895e-02  5.9435461e-02  5.5378322e-02
  3.5005049e-03  9.2690073e-02  2.5929931e-01  3.6542334e-02
  2.6794797e-01 -1.7924459e-01 -5.8976170e-02  8.3122157e-02
 -2.6553571e-01 -2.3981611e-01  1.7970124e-04 -1.2118160e-01] [ 0.01385244  0.03406139  0.12969643  0.02912876  0.11926327  0.15464586
 -0.01021817 -0.15664004 -0.1570082  -0.38097757 -0.04992593 -0.00182166
  0.07699949 -0.00214996 -0.14266299  0.02144186 -0.1703937   0.0732784
  0.05082764  0.00499165] [ 0.13001354 -0.03049452  0.20202784 -0.23417878  0.07018773 -0.1939316
 -0.19263369  0.08603048 -0.17310572 -0.24461856  0.25357324  0.07503147
 -0.2643004  -0.05661502  0.01172964 -0.28211132 -0.01530641 -0.12858878
  0.10308631  0.04030997] [-0.06937083  0.09459502 -0.06403359  0.06761406 -0.07867399  0.19243543
 -0.28541195  0.22069485 -0.00415011  0.1761144  -0.23299405 -0.03245303
 -0.38262317  0.00255276  0.07048621 -0.15528077  0.32839438  0.04673897
 -0.26190525  0.06828465] [-0.51625556 -0.17422327  0.03168691 -0.3601399   0.3294485   0.19063424
 -0.316729   -0.2048412   0.08334237  0.3577589   0.22076507  0.10320724
  0.3240249   0.33629295 -0.01554916  0.06674534 -0.23022188 -0.25642726
 -0.12000479 -0.22122085] [-0.05649383  0.03736615 -0.048987    0.2170055   0.22222891  0.06846394
 -0.09267995  0.06892971 -0.18872216 -0.00651832 -0.02286431 -0.21287964
 -0.07452177  0.23391542  0.17960788 -0.04883143 -0.0293546  -0.06934071
  0.0950151   0.08463224] [ 0.05376794 -0.02335404 -0.06213477  0.03559719  0.12360722  0.24924964
 -0.1887542  -0.13487026 -0.04580371  0.23388822 -0.08365364  0.06651329
 -0.18820375 -0.16921838 -0.0991002  -0.3185863   0.23873165 -0.22799058
  0.09771951  0.17250735] [-0.24648304  0.08486706 -0.0227759  -0.14225122 -0.23940484 -0.11883004
  0.02951769 -0.14896855  0.27707642 -0.10305133 -0.01760085  0.04207092
 -0.04495301  0.01600139  0.27663293  0.13160592 -0.17834517 -0.09789164
 -0.19343778  0.21284774] [ 0.09061779 -0.06419191 -0.09380835 -0.116506   -0.27613947 -0.16200653
  0.16265963 -0.2879495   0.13873713  0.24088795 -0.04885827  0.05092013
 -0.0769719   0.0500737   0.18552569 -0.26311153 -0.03760004  0.06534026
  0.23227356  0.06389003] [-0.09910514  0.11861503 -0.06496862  0.19028649 -0.13718879  0.08661793
  0.16935588 -0.21908796 -0.23403777 -0.21415693 -0.01621166 -0.14437747
  0.19462365 -0.06665951  0.3899346   0.00563182 -0.22263531  0.1475404
  0.04924591 -0.40870655] [-0.08533012  0.11642318 -0.20372304  0.06121154  0.28422114  0.18841042
  0.14362407 -0.16012229  0.21504132 -0.08635852  0.17309001 -0.24492548
  0.02949107 -0.08266657 -0.18211494 -0.0690583   0.37703404 -0.15870549
 -0.2304569   0.29656938] [-0.19496769  0.19558668  0.31995827 -0.15631539 -0.0789165   0.34842318
 -0.15202048 -0.10855414  0.14552158 -0.09984571 -0.02600045  0.34927037
  0.06845262  0.04488834 -0.11347127  0.12990265 -0.03269767 -0.31193015
  0.30389547  0.2649388 ] [ 0.03442411 -0.14565639 -0.16345277 -0.1813779   0.14671856 -0.23010668
  0.06935873 -0.1809286   0.1657576  -0.03783843  0.2705935  -0.17155837
  0.19999804  0.266514    0.10086944 -0.19745447  0.09736713 -0.2957687
  0.33920696  0.2162845 ] [ 0.00705189 -0.1998352  -0.02275211 -0.20586067 -0.05004513  0.10860638
  0.23247306 -0.06720573  0.12134514 -0.22039281  0.1745503   0.07939917
 -0.26551086 -0.04443124 -0.09586078 -0.35434905 -0.15777302  0.05283332
 -0.21531555 -0.02376712] [-0.15226932  0.25022542 -0.37694836 -0.23947132 -0.12100215  0.06995198
  0.45016003 -0.1975112   0.11757229 -0.1347824   0.3115052   0.14196394
 -0.21714811  0.14828557  0.0231106  -0.31859353 -0.03628144  0.07587871
 -0.14632969  0.14923047] [ 0.01098658 -0.20179896 -0.1262807   0.08117136 -0.06916883 -0.2149196
  0.31099442 -0.06986504 -0.12205606  0.28770432  0.07441368 -0.24085712
 -0.23365527  0.1066728   0.03988281  0.07435025  0.1225123   0.13946596
 -0.02168681  0.25180197] [-0.06375018  0.18335807  0.21023607 -0.0581823   0.17008401  0.05275444
  0.23779069 -0.20747341 -0.17864788 -0.17535055  0.23143971 -0.15866205
 -0.02777811 -0.10325234  0.16224809  0.01561221  0.2767315   0.5200548
 -0.02333575 -0.14732853] [-0.1974343  -0.13702735  0.23061675 -0.15559496  0.27209607  0.36862686
 -0.0702741   0.1398066   0.22781134 -0.05690172 -0.24652822 -0.1239934
 -0.18739046 -0.1975454   0.25777426  0.37045982 -0.13777855 -0.06153879
 -0.380917   -0.10360076] [-0.1355961  -0.11869777  0.20129114  0.05959103  0.20765066  0.16008675
  0.14337698  0.08198133 -0.05419365 -0.00538257  0.03615887 -0.04741957
  0.33644712  0.00268772 -0.0621171   0.15040138 -0.06929757  0.10528518
  0.29757565 -0.06264697] [ 0.20262237 -0.13571803 -0.18843517  0.03612857 -0.12417222 -0.24028513
 -0.03753296  0.14123413  0.07882105  0.01510756  0.21709444  0.1545936
 -0.05047916  0.1126797   0.0131092  -0.11745504 -0.17016108  0.10498275
 -0.11764481  0.21056545] [-0.01897291  0.02913331 -0.03508517 -0.23095356 -0.26412573  0.06843656
  0.15971068  0.11040523  0.29194528  0.12083671 -0.17672928  0.16429222
  0.25964916  0.10694975  0.34050408 -0.14476621  0.07135243  0.29181838
 -0.21602893  0.0861304 ] [ 1.62970707e-01  2.96155453e-01 -8.19400847e-02 -3.06349713e-02
  1.74207866e-01 -2.77583748e-01  1.20530389e-01  1.02473244e-01
 -7.20998868e-02 -3.42177480e-01 -8.73312578e-02 -1.79468436e-04
  1.15062311e-01 -1.59045890e-01 -8.62810314e-02 -7.22522438e-02
  1.20297670e-01  2.84152001e-01 -1.91691667e-01  1.54712901e-01] [-0.00259514  0.295039    0.08259981  0.23535195  0.03737038 -0.03041117
  0.21660095 -0.13980237 -0.11283657 -0.37150884 -0.018711   -0.02585787
  0.15222548  0.20771419 -0.10166919  0.21707724 -0.16245723 -0.08062956
 -0.2676717  -0.12757008] [-0.11347844  0.29838896 -0.10573731 -0.15356085  0.00149915 -0.06334962
 -0.16611062  0.0655409  -0.17642803 -0.10112502  0.2015381   0.15016444
  0.25503802 -0.08191115  0.18560119 -0.02335289  0.05962249  0.05592593
 -0.16076344 -0.14712922] [-0.1942527  -0.1484916   0.07090976 -0.04271511  0.16731657 -0.04915182
 -0.013635    0.1736642  -0.2016681   0.08909125 -0.29803422  0.14344966
  0.02794335 -0.39130262  0.06301705  0.2786425   0.07764989 -0.17622258
 -0.26810855  0.15579134] [-0.5213972  -0.23871402  0.24820243 -0.04566545  0.27061924  0.1750767
  0.03645585 -0.39403757  0.15159118 -0.0192002  -0.3320392   0.10597228
  0.46677187 -0.22221074  0.16063245  0.04385326  0.16020226 -0.17192447
  0.12660746 -0.01604255] [-0.03142984 -0.15451297  0.01611821 -0.10512359  0.29879552 -0.04539623
 -0.24257387  0.00046337 -0.12149993  0.31762153  0.04985629 -0.0304958
  0.15893191  0.08460583  0.044715   -0.23600219  0.11233255  0.02504224
  0.21508706 -0.1925839 ] [ 0.17976713  0.07009496  0.00920758  0.15074211  0.00208458  0.1411915
  0.25376728  0.11767051  0.00573147 -0.16828768 -0.26530364 -0.13915971
 -0.01695956 -0.09922868  0.25337133 -0.1705962  -0.18663502 -0.22051731
 -0.1401382   0.13536754] [ 0.16859539 -0.20464675  0.20560627  0.1820856   0.22789231  0.14710507
 -0.00429314 -0.22865087 -0.07857563 -0.12475541  0.16115417  0.10703514
 -0.18324575 -0.2675584  -0.0469574   0.18830673 -0.09559797  0.1432409
 -0.00718088 -0.3820513 ] [-0.13633475  0.24705885 -0.22178727 -0.27528766 -0.15127279  0.14823908
 -0.18735194 -0.10273547 -0.15311715 -0.21864738 -0.16131034 -0.14424407
  0.07564105  0.03028369 -0.00087586 -0.26802143 -0.07250684 -0.05895363
 -0.05838937 -0.14707759] [-0.173444    0.30374458  0.00606733  0.19774854 -0.06631514  0.03091668
 -0.03322158  0.15910786  0.06803324 -0.36274895 -0.19984859 -0.10963437
  0.25948152  0.22743511  0.10432301 -0.00846603 -0.24136774 -0.3216283
 -0.05783317  0.20479797] [ 0.09175856 -0.27750328  0.02202358  0.27890748 -0.21781997  0.23581605
  0.08447036 -0.09757625  0.10364687 -0.17756362 -0.2676678  -0.24603266
 -0.25683275 -0.26048583  0.05429083  0.11678751  0.24950847 -0.0938028
 -0.01861647  0.15665764] [-0.19706795  0.18069929  0.28601202 -0.10805835  0.40712163  0.08882202
  0.04516301 -0.33258724  0.1619385  -0.04575688  0.02109499 -0.09748094
  0.27123758 -0.14063548 -0.00194942 -0.06845193  0.13208373  0.2583429
 -0.08268379  0.22519909] [-0.06050397 -0.17064981  0.20957434 -0.22168472 -0.28445283 -0.04112052
 -0.10226606 -0.34279385  0.08907731 -0.09780844 -0.16579317 -0.04862515
  0.06996464  0.26299238  0.17973524 -0.15982015 -0.21455492  0.12779327
 -0.07889923 -0.01169438] [ 0.2298993  -0.29593587  0.22597337 -0.09757139  0.0965248  -0.06302538
 -0.27603543  0.19135359  0.03908145  0.21506442 -0.088131   -0.36562002
  0.24353524  0.03257839  0.1698963   0.25361928 -0.17716885  0.04074978
  0.11530909  0.09161537] [ 0.18803224  0.13352479 -0.105302   -0.0947976   0.14284095  0.08343378
 -0.03519792 -0.2917851  -0.11158538  0.20979221  0.12971541  0.00280743
 -0.17564347 -0.18599507 -0.23133871 -0.16297704  0.2407965  -0.25429878
 -0.04505925 -0.07750046] [-0.18161125 -0.22086409  0.23217814 -0.16449942  0.06233126  0.21474515
 -0.07834648 -0.14697544 -0.2086044   0.01093683 -0.21154758 -0.1867695
 -0.10004548  0.25588045  0.12997738  0.01568252 -0.14844431 -0.08471332
  0.07571976 -0.19756417] [-0.01453837  0.3125986  -0.08968291  0.1826415   0.21008031 -0.26681784
 -0.16118902  0.10940702  0.04009671 -0.17537896 -0.19484067 -0.01688245
  0.09716617  0.16809341 -0.00553482  0.08379721 -0.20808296  0.07168414
 -0.20261648 -0.20185705] [ 0.14777432 -0.11214926  0.24421164  0.02647364 -0.16650148  0.21311283
 -0.0470935   0.27958986 -0.03725387 -0.18615127 -0.17592998 -0.05001973
  0.0161783   0.05557185 -0.09360626 -0.10402776  0.09419531 -0.07328986
 -0.20824637 -0.29151472] [-0.04763859 -0.34853166  0.17480199 -0.00968654  0.2607188  -0.11206412
  0.11439216 -0.3022214  -0.08851113  0.22140971  0.44294587 -0.10117181
 -0.14221403  0.05575071  0.05421657  0.08721304 -0.058266    0.342127
 -0.19149101 -0.21122082] [ 0.20947179 -0.07350367 -0.08263715 -0.31454298 -0.28900847  0.20919025
  0.00936528 -0.45950893 -0.15679176  0.00372332 -0.3382683   0.46156186
 -0.09668111 -0.22399274 -0.23193033  0.01395589 -0.15056935  0.12638132
 -0.11410317 -0.08787376] [-0.11271693  0.33703384  0.10057386 -0.10581092  0.12561657  0.2114089
  0.37231043 -0.02582491 -0.19984014 -0.00054333  0.15108341  0.1294264
  0.12132807  0.04858615 -0.14106719 -0.26026702  0.14110573  0.06444844
 -0.00757543 -0.25319883] [ 0.05329759 -0.10872222 -0.20162675  0.20651743 -0.16603191  0.07344613
 -0.11195653 -0.28472507 -0.2971833   0.13214336  0.19969952 -0.13922743
 -0.11256919 -0.09455938 -0.23840159  0.16380621  0.17353103 -0.14775676
 -0.11857633 -0.09621298] [ 0.07913606 -0.4983239   0.1943635   0.20066011  0.0254551   0.10651401
 -0.39178917 -0.2715957   0.0628596   0.01691302 -0.04419158 -0.13543274
 -0.09606984 -0.2592557  -0.11473542 -0.08903836  0.21059468  0.0398789
  0.26841727 -0.06101982] [ 0.12073139 -0.3585551  -0.01603488  0.14869504  0.21313044  0.1041811
  0.04208873 -0.2568728  -0.33409062  0.14376132  0.1473073  -0.06707337
 -0.04055357 -0.05446729  0.02872348  0.01348677  0.01319303  0.01088057
 -0.09016    -0.077863  ] [ 0.27160996 -0.07392416 -0.40967667 -0.15598807  0.11239818  0.01684972
  0.04989824 -0.01917771  0.10685129 -0.12345951  0.35412025  0.01064634
  0.02422933  0.00938948  0.23875435  0.13213061  0.05309445  0.4525352
  0.045419    0.04999961] [ 0.43160304 -0.1795148  -0.30846027  0.2864702  -0.32116628 -0.09546591
  0.35779995  0.00922815 -0.18015209  0.20747727 -0.12719156  0.16711144
 -0.07286049 -0.19979434  0.25278375 -0.036967    0.094161   -0.11633435
  0.12921104 -0.14875606] 
Bias:
[-0.01566485 -0.01455535  0.00585454  0.0278083   0.00405185  0.05398686
  0.03693268  0.04690999  0.00330184 -0.02752302 -0.02530063  0.03509577
  0.01718854 -0.01567075 -0.01596118  0.04605473 -0.01307063 -0.00648877
 -0.03014094  0.04354139]

From hidden layer through output layer:
[[-0.4913215  -1.0135375  -0.44008753 -0.6826364   0.5839064  -0.11994477
   0.64625335]
 [ 0.7436399  -0.6347973  -0.2580939  -0.11166338 -0.67045414 -0.4748957
   0.46386513]
 [-0.37586132 -0.29022458 -0.2932152   0.5136883  -0.70151293 -0.026043
  -0.7051888 ]
 [ 0.02412688 -0.8646419   0.01726968 -0.5268341  -0.4242866   0.42856282
  -0.5134337 ]
 [ 0.13202463  0.5936057   0.7245085   0.02129905 -0.80301756  0.10908566
   0.12994179]
 [-0.2003982   0.372341   -1.0453687   0.06865269 -0.35800326  0.4589953
  -0.34242198]
 [ 0.50995195  0.3081183  -0.99480766 -0.6356449   0.3015786  -0.6200542
   0.24000187]
 [ 0.04907276 -1.0102314   0.2612454  -0.36185372 -0.7693867   0.4039789
   0.25998282]
 [ 0.07772645 -0.03769231 -0.49645403  0.1295115  -0.29134247  0.1556905
   0.41419268]
 [-0.90869814 -0.33458117  0.32353535  0.10194625  0.20068304 -0.27663344
  -0.8614517 ]
 [-0.4666277   0.16961826  0.42171925 -0.77458376  0.3886721  -0.83476126
  -0.6108306 ]
 [-0.12842593  0.01778477 -0.89895946  0.5913045   0.33276328 -0.7584292
   0.31138116]
 [ 0.20889342  0.08918626  0.29882053  0.25117365 -0.9471712  -0.93827677
  -0.5933013 ]
 [-0.6300274  -0.16997388  0.3266483  -0.27361047 -0.3050516  -0.6788937
   0.39479476]
 [ 0.7320291   0.03562802 -0.0896758  -0.47352627  0.0707957  -0.36496517
  -0.44737613]
 [ 0.05035649 -0.53061265 -0.22041336 -0.26739067 -0.76576996  0.39323366
  -0.535739  ]
 [-0.4855533  -0.11931205 -0.12174925 -0.0427922   0.07987368  0.617104
  -0.7715883 ]
 [ 0.218806    0.382805   -0.24842517 -0.76607466  0.33963653 -0.55130434
  -0.47947934]
 [-0.4380756  -0.06424349  0.4096988   0.48216432  0.2962581  -0.62748635
  -0.26388353]
 [-1.0665374   0.2110655  -0.41324005 -0.20907237 -0.1925199   0.19602863
   0.44238782]]
Bias:
[-0.21320517 -0.24471112 -0.33319566 -0.32640642 -0.28515488 -0.23310503
 -0.22034958]